/*
 * Copyright (c) 2026 EdgeImpulse Inc.
 *
 * Generated by Edge Impulse and licensed under the applicable Edge Impulse
 * Terms of Service. Community and Professional Terms of Service
 * (https://edgeimpulse.com/legal/terms-of-service) or Enterprise Terms of
 * Service (https://edgeimpulse.com/legal/enterprise-terms-of-service),
 * according to your product plan subscription (the “License”).
 *
 * This software, documentation and other associated files (collectively referred
 * to as the “Software”) is a single SDK variation generated by the Edge Impulse
 * platform and requires an active paid Edge Impulse subscription to use this
 * Software for any purpose.
 *
 * You may NOT use this Software unless you have an active Edge Impulse subscription
 * that meets the eligibility requirements for the applicable License, subject to
 * your full and continued compliance with the terms and conditions of the License,
 * including without limitation any usage restrictions under the applicable License.
 *
 * If you do not have an active Edge Impulse product plan subscription, or if use
 * of this Software exceeds the usage limitations of your Edge Impulse product plan
 * subscription, you are not permitted to use this Software and must immediately
 * delete and erase all copies of this Software within your control or possession.
 * Edge Impulse reserves all rights and remedies available to enforce its rights.
 *
 * Unless required by applicable law or agreed to in writing, the Software is
 * distributed on an "AS IS" BASIS, WITHOUT WARRANTIES OR CONDITIONS OF ANY KIND,
 * either express or implied. See the License for the specific language governing
 * permissions, disclaimers and limitations under the License.
 */
// Generated on: 11.06.2026 13:28:33

#include <stdio.h>
#include <stdlib.h>
#include "edge-impulse-sdk/tensorflow/lite/c/builtin_op_data.h"
#include "edge-impulse-sdk/tensorflow/lite/c/common.h"
#include "edge-impulse-sdk/tensorflow/lite/micro/micro_mutable_op_resolver.h"
#include "edge-impulse-sdk/porting/ei_classifier_porting.h"

#if EI_CLASSIFIER_PRINT_STATE
#if defined(__cplusplus) && EI_C_LINKAGE == 1
extern "C" {
    extern void ei_printf(const char *format, ...);
}
#else
extern void ei_printf(const char *format, ...);
#endif
#endif

#define STRINGIZE(x) #x
#define STRINGIZE_VALUE_OF(x) STRINGIZE(x)

#if defined (__GNUC__)  /* GNU compiler */
#define ALIGN(X) __attribute__((aligned(X)))
#define DEFINE_SECTION(x) __attribute__((section(x)))
#elif defined (_MSC_VER)
#define ALIGN(X) __declspec(align(X))
#elif defined (__TASKING__) /* TASKING Compiler */
#define ALIGN(X) __align(X)
#define DEFINE_SECTION(x) __attribute__((section(x)))
#elif defined (__ARMCC_VERSION) /* Arm Compiler */
#define ALIGN(X) __ALIGNED(x)
#define DEFINE_SECTION(x) __attribute__((section(x)))
#elif defined (__ICCARM__) /* IAR Compiler */
#define ALIGN(x) __attribute__((aligned(x)))
#define DEFINE_SECTION(x) __attribute__((section(x)))
#elif defined (__clang__) /* LLVM/Clang Compiler */
#define ALIGN(X) __ALIGNED(x)
#define DEFINE_SECTION(x) __attribute__((section(x)))
#endif

#if defined(EI_MODEL_SECTION) && (defined(__GNUC__) || defined(__clang__))
#define MODEL_SECTION(X) __attribute__((section(STRINGIZE_VALUE_OF(X))))
#else
#define MODEL_SECTION(X)
#endif

#ifndef EI_MAX_SCRATCH_BUFFER_COUNT
#ifndef CONFIG_IDF_TARGET_ESP32S3
#define EI_MAX_SCRATCH_BUFFER_COUNT 4
#else
#define EI_MAX_SCRATCH_BUFFER_COUNT 4
#endif // CONFIG_IDF_TARGET_ESP32S3
#endif // EI_MAX_SCRATCH_BUFFER_COUNT

#ifndef EI_MAX_OVERFLOW_BUFFER_COUNT
#define EI_MAX_OVERFLOW_BUFFER_COUNT 10
#endif // EI_MAX_OVERFLOW_BUFFER_COUNT

using namespace tflite;
using namespace tflite::ops;
using namespace tflite::ops::micro;

namespace {

#if defined(EI_CLASSIFIER_ALLOCATION_STATIC_HIMAX) || defined(EI_CLASSIFIER_ALLOCATION_STATIC_HIMAX_GNU)
constexpr int kTensorArenaSize = 1696;
#else
constexpr int kTensorArenaSize = 672;
#endif

#if defined(EI_CLASSIFIER_ALLOCATION_STATIC)
#if defined (EI_TENSOR_ARENA_LOCATION)
uint8_t tensor_arena[kTensorArenaSize] ALIGN(16) DEFINE_SECTION(STRINGIZE_VALUE_OF(EI_TENSOR_ARENA_LOCATION));
#else
uint8_t tensor_arena[kTensorArenaSize] ALIGN(16);
#endif
#elif defined(EI_CLASSIFIER_ALLOCATION_STATIC_HIMAX)
#pragma Bss(".tensor_arena")
uint8_t tensor_arena[kTensorArenaSize] ALIGN(16);
#pragma Bss()
#elif defined(EI_CLASSIFIER_ALLOCATION_STATIC_HIMAX_GNU)
uint8_t tensor_arena[kTensorArenaSize] ALIGN(16) __attribute__((section(".tensor_arena")));
#else
#define EI_CLASSIFIER_ALLOCATION_HEAP 1
uint8_t* tensor_arena = NULL;
#endif

static uint8_t* tensor_boundary;
static uint8_t* current_location;

template <int SZ, class T> struct TfArray {
  int sz; T elem[SZ];
};

enum used_operators_e {
  OP_FULLY_CONNECTED, OP_SOFTMAX,  OP_LAST
};

struct TensorInfo_t { // subset of TfLiteTensor used for initialization from constant memory
  TfLiteAllocationType allocation_type;
  TfLiteType type;
  void* data;
  TfLiteIntArray* dims;
  size_t bytes;
  TfLiteQuantization quantization;
};

typedef struct {
  TfLiteTensor tensor;
  int16_t index;
} TfLiteTensorWithIndex;

typedef struct {
  TfLiteEvalTensor tensor;
  int16_t index;
} TfLiteEvalTensorWithIndex;

TfLiteContext ctx{};
static const int MAX_TFL_TENSOR_COUNT = 4;
static TfLiteTensorWithIndex tflTensors[MAX_TFL_TENSOR_COUNT];
static const int MAX_TFL_EVAL_COUNT = 4;
static TfLiteEvalTensorWithIndex tflEvalTensors[MAX_TFL_EVAL_COUNT];
TfLiteRegistration registrations[OP_LAST];

namespace g0 {
const TfArray<2, int> tensor_dimension0 = { 2, { 1,333 } };
const TfArray<1, float> quant0_scale = { 1, { 0.18289197981357574, } };
const TfArray<1, int> quant0_zero = { 1, { -99 } };
const TfLiteAffineQuantization quant0 = { (TfLiteFloatArray*)&quant0_scale, (TfLiteIntArray*)&quant0_zero, 0 };
const MODEL_SECTION(EI_MODEL_SECTION) ALIGN(8) int32_t tensor_data1[3] = { -56, -44, 68, };
const TfArray<1, int> tensor_dimension1 = { 1, { 3 } };
const TfArray<1, float> quant1_scale = { 1, { 0.0003466992056928575, } };
const TfArray<1, int> quant1_zero = { 1, { 0 } };
const TfLiteAffineQuantization quant1 = { (TfLiteFloatArray*)&quant1_scale, (TfLiteIntArray*)&quant1_zero, 0 };
const MODEL_SECTION(EI_MODEL_SECTION) ALIGN(16) int8_t tensor_data2[3*10] = { 
  68, 13, 105, -108, -41, 62, 89, -95, -127, 89, 
  80, 71, -26, -82, -124, 5, 35, -105, 9, -35, 
  -103, -21, 127, 10, -106, -98, -102, -55, 122, 36, 
};
const TfArray<2, int> tensor_dimension2 = { 2, { 3,10 } };
const TfArray<1, float> quant2_scale = { 1, { 0.0053403927013278008, } };
const TfLiteAffineQuantization quant2 = { (TfLiteFloatArray*)&quant2_scale, (TfLiteIntArray*)&g0::quant1_zero, 0 };
const MODEL_SECTION(EI_MODEL_SECTION) ALIGN(16) int32_t tensor_data3[10] = { -44, -46, 39, 92, -30, -91, -69, 90, 89, 32, };
const TfArray<1, int> tensor_dimension3 = { 1, { 10 } };
const TfArray<1, float> quant3_scale = { 1, { 0.00026909913867712021, } };
const TfLiteAffineQuantization quant3 = { (TfLiteFloatArray*)&quant3_scale, (TfLiteIntArray*)&g0::quant1_zero, 0 };
const MODEL_SECTION(EI_MODEL_SECTION) ALIGN(16) int8_t tensor_data4[10*20] = { 
  40, -82, -67, 8, 100, 16, 127, -107, -4, -52, 22, 13, 63, 111, 51, -84, -3, -31, -69, 9, 
  -60, -119, 63, 62, 54, -41, -55, -100, -94, 13, -55, -58, 61, 19, 68, 88, -53, 30, -44, -37, 
  -23, -93, -6, 110, -49, -59, -42, 20, -46, -12, 34, 56, -21, -85, -10, -68, 88, -93, -101, -74, 
  68, 13, 107, 15, -66, 77, -69, -43, -27, 90, 107, 47, -69, -106, -1, -47, -25, -51, 107, 91, 
  -55, 68, -107, -52, -86, 70, -35, 24, -91, 47, 88, 65, -23, 64, 25, -92, -45, 106, 72, 56, 
  -99, 73, -82, 40, -31, -117, -4, 75, -116, -67, 71, 64, -58, 74, -27, -64, -37, 62, -68, -1, 
  85, 50, -69, -87, 80, 79, 18, -37, -26, -11, 57, 48, -76, -27, 7, -14, 60, -16, -17, -39, 
  -8, 92, 58, 72, -12, 87, 70, -108, 113, -13, -54, 112, 69, -35, -97, 46, 89, 9, 13, 92, 
  74, 37, 67, 52, 88, 34, -107, -23, -30, 30, 103, 16, 2, -119, -32, 92, -87, 70, -48, -28, 
  39, -61, -22, -7, 80, 101, -20, 8, 80, -103, -60, 58, -76, -38, 61, -14, -11, 96, 1, 80, 
};
const TfArray<2, int> tensor_dimension4 = { 2, { 10,20 } };
const TfArray<1, float> quant4_scale = { 1, { 0.0038069200236350298, } };
const TfLiteAffineQuantization quant4 = { (TfLiteFloatArray*)&quant4_scale, (TfLiteIntArray*)&g0::quant1_zero, 0 };
const MODEL_SECTION(EI_MODEL_SECTION) ALIGN(16) int32_t tensor_data5[20] = { 69, 20, 50, 64, -10, 0, -4, -19, -8, 118, 7, 15, 5, -46, -40, -28, -62, 28, -11, 99, };
const TfArray<1, int> tensor_dimension5 = { 1, { 20 } };
const TfArray<1, float> quant5_scale = { 1, { 0.00033585345954634249, } };
const TfLiteAffineQuantization quant5 = { (TfLiteFloatArray*)&quant5_scale, (TfLiteIntArray*)&g0::quant1_zero, 0 };
const MODEL_SECTION(EI_MODEL_SECTION) ALIGN(16) int8_t tensor_data6[20*333] = { 
  4, -62, 2, 78, 39, 41, 27, -61, 11, -78, -18, 15, -63, -29, -6, 63, 13, 35, -42, -39, 48, -24, 56, 21, -64, 34, -53, -52, -61, -84, -3, 4, 36, -69, -82, 11, -56, 64, 32, -17, 45, 6, -49, -23, -61, 55, -47, 38, -49, -60, -6, -51, 36, -14, -83, 13, 54, 31, 43, 44, 32, -37, -18, -71, -18, -79, -29, 10, 47, -15, 11, -69, -68, -52, -11, -97, 73, 47, 6, 53, 16, -9, -27, 5, -25, 6, -74, -3, -41, -57, 30, -9, -36, 71, -6, -86, 64, 45, -47, -29, -19, -92, 1, 16, -43, -59, -56, -3, -45, -40, 39, 35, 19, 28, -28, 66, -21, 40, -58, 31, 42, 8, 22, 71, -63, -1, 49, -1, 52, -18, -63, -41, 51, 8, 55, -33, 6, 64, -22, 3, 30, -21, -50, -49, -26, -28, -7, 15, -44, -66, -37, 46, -15, 41, 29, -35, 52, 8, -76, -2, 32, 64, -32, -27, -18, -38, -63, -49, 35, 48, -43, 1, -13, -15, -23, 44, 48, 47, -63, -62, 19, 36, -68, -41, 12, 21, -81, -75, 49, 8, 68, -38, 16, 70, 37, 31, -46, 50, -59, -4, -27, 34, 53, 11, 16, -52, 40, -43, 23, 45, 51, 33, -21, -39, -31, -24, -33, -49, -29, -49, 16, 24, 23, -61, 77, -45, -18, -51, -55, 113, -18, -86, -34, -44, -81, -43, 78, 11, 24, 26, -41, -47, 40, -62, 38, 38, -57, -4, -31, 62, 8, 30, -33, 15, -64, -42, -8, 9, -53, 23, 38, 51, -26, 21, 2, 71, 14, 63, 58, 90, 80, -34, -22, 24, -7, -89, -71, 23, -8, -35, 52, -42, 7, -26, -48, -4, -45, -37, -33, -33, -26, 67, 5, -41, 52, 26, 2, -30, -40, 53, -6, 37, 45, -27, 45, -8, 73, -43, 16, 10, 32, -49, -34, -44, 9, 13, -6, -46, -8, -72, 17, -46, 2, 20, 11, -65, -27, 13, 3, -23, -36, 15, -77, 
  -61, 43, 47, 9, -19, 16, 25, 34, 43, 83, -31, 41, 17, 13, 45, -31, 64, 50, 82, -32, 1, 2, 66, -9, 42, 45, 2, 65, -5, -35, 3, 80, 70, 76, 59, -8, -45, -4, 3, -40, -24, -31, 72, 53, 43, -14, 68, -31, 9, 11, -60, -13, -2, -24, 10, -45, -54, 70, 77, -54, -10, 58, -7, 4, -19, 12, 65, -72, 35, -29, 53, -42, 50, 5, 17, 110, -29, -35, 1, 71, -2, -61, -23, 14, 43, 14, -6, -45, 16, -13, 27, 26, 70, 18, 9, 53, -27, -55, 15, -54, 27, 82, 9, 3, -34, 53, 71, -37, -3, -3, -7, -62, 61, 21, -14, 69, 21, 15, -50, -46, 20, -62, -19, -34, 36, -5, 2, 35, -51, 72, -18, -16, 55, -10, 73, 47, -41, -18, -8, 45, -64, 20, -4, -27, 4, 51, 34, 43, -18, -26, -27, -18, -24, -20, -22, 60, 51, 76, -38, -25, -37, -53, 43, -24, -52, -10, -39, 20, -49, -6, -3, -43, 35, -19, 4, 57, 38, -23, -24, -29, -56, 14, 36, 25, -13, 61, 39, -17, 47, 71, 61, 33, 56, 67, -3, 20, -33, -53, -54, 67, 58, -16, -49, 16, -33, 15, 46, 69, 40, 56, -29, -5, 6, 3, -45, 13, 31, 34, 4, -42, -51, -47, 37, -26, 10, 63, -12, -4, -29, -72, 73, 56, 46, 37, -44, -52, -14, -14, -6, 5, -70, 30, 3, 69, -12, -14, -5, -63, 13, 47, 24, -45, 5, 13, 61, 16, -32, -7, -56, 45, -96, -28, 65, -41, 46, -22, -70, -11, 63, -69, -67, -27, 35, 10, 55, -61, 39, -9, 9, -18, -53, -49, 3, 13, 14, -33, 18, -74, 61, -62, 8, -34, -27, 11, -25, -9, -14, 9, 55, 12, 70, 9, -28, -17, 12, -14, -36, -31, -65, 25, -24, 26, 60, -62, 49, -39, 44, 61, 5, 1, -24, 58, 9, -76, 47, -15, 11, -34, 35, -19, -38, -33, -12, 
  44, -49, -58, -27, 53, -22, 57, 54, 65, -20, -61, 9, -51, 49, -32, 51, 17, 32, -3, 23, 64, -65, 40, -46, 16, -20, 61, 26, -40, -68, -44, 40, 35, -49, -14, -34, -67, 4, 46, -74, 47, 45, -52, -1, 35, -3, -38, -62, 29, -21, 44, -4, -7, -5, 21, -75, -15, 2, -1, -11, 75, -23, -21, -2, -24, 17, -12, -49, -27, -21, -1, -82, -19, 33, -17, -89, -45, 50, -21, -42, 30, -39, 18, -11, -1, 13, -17, 4, -45, 5, -45, 65, 16, -17, 78, 45, 28, 50, 38, 21, -73, -71, -38, -51, 25, -42, 53, 51, -6, -18, -48, 47, 16, -56, -37, -54, 43, 84, -4, 40, -26, 65, 76, -61, 72, 69, 23, 48, -53, -1, 39, -38, 14, 32, 42, 48, -22, 57, 53, 35, -12, 62, 69, 68, -41, 5, -42, 8, -29, -23, 16, -30, -20, 11, 35, 67, 40, -30, 49, -51, 8, 55, 18, 59, -8, -52, -43, -20, -31, -14, -56, -8, 12, -67, -36, 1, 35, -39, -53, -74, 45, -51, -20, 53, -41, 12, 8, -20, 41, -37, 13, 28, -17, 61, 5, -43, 16, -58, -46, 5, 66, -5, 11, -20, -55, -53, 21, 10, -60, 63, 50, -69, -27, -29, 42, 25, -65, 45, 59, -67, -7, 10, 35, -71, -39, 11, 10, -73, -35, 9, 1, 25, -45, -6, 47, -2, 64, 11, 25, -72, -53, 66, -62, -37, 5, -79, -8, -5, 55, -22, 8, 28, 41, -40, 40, -37, -60, 43, -89, -51, 43, -73, 15, -50, -26, 58, 61, -24, 29, 31, 44, 16, 33, 8, 1, -9, -29, -32, -43, -39, 36, -46, -39, 14, -51, -5, 14, -56, 36, -77, -35, -62, 62, 62, 53, -23, 63, -54, -2, -48, 51, 50, 45, -16, 3, -28, 7, -16, 49, -14, 9, 63, -59, -8, 69, 12, 60, 61, -16, 47, -8, -68, -1, 72, 46, 62, -80, 8, -37, 29, 14, 10, 2, 
  -55, -7, -18, 61, 14, 56, 8, 60, 29, -78, 45, 51, 39, 63, 44, -11, -54, -45, 20, 44, -51, 29, -42, -13, 49, 32, -61, 30, 52, 30, -42, 17, 58, -34, 36, -3, 64, -54, 44, 68, -46, 52, 15, 65, 77, -49, -17, -59, 43, 27, -39, 12, -4, -64, 2, -75, -67, -80, -43, -1, 71, 20, 51, 38, -47, -80, 22, -64, -47, -62, 42, -40, -52, -68, 17, -28, 0, 84, 39, 70, 17, 44, 40, -31, -19, -55, -4, -18, 59, -16, 39, 36, -54, 26, 65, -38, -37, 1, 68, -12, -28, -21, 51, -52, -49, -28, -13, -17, 11, 16, -69, 28, 10, 34, 13, 67, -50, 21, 63, 9, -52, 68, 14, 35, -47, 18, 10, -42, 18, 22, -24, -58, -27, 54, -9, -25, -37, 17, 11, 53, 44, 35, 19, -27, 20, 8, -12, -61, -26, -79, -21, -37, 63, 68, -35, 19, 27, 64, -43, -56, -14, 43, 67, 45, -31, 10, -36, -49, 17, 1, -73, -16, 5, -58, 27, 21, 30, 38, 33, -83, -9, 57, 52, 56, 2, -67, -53, 34, 15, -29, -3, -44, 11, -37, 8, 73, -26, -45, -36, -25, -32, -16, -45, -31, 7, -5, 5, 49, 71, 1, -8, 62, -3, -20, -17, -29, -66, -8, -58, -47, 69, 14, 49, -25, 82, -61, 56, -76, -23, 52, 5, 53, -68, 43, -63, 22, -12, -9, 34, 37, -13, 21, 56, -81, -72, -36, -10, 7, -72, -27, -78, 12, -36, -77, 1, -32, -52, 46, 45, 35, 16, -52, 44, -22, -42, 4, 56, -28, 5, -15, 66, 65, 7, -12, -46, -28, 41, -25, -19, 9, 59, 70, 32, 14, 61, -43, 56, -51, -48, -14, -43, -52, -71, 41, -20, -42, 31, -49, -72, 23, -29, -15, 23, -30, 16, 17, 31, 16, 49, -44, 76, 44, 2, 24, 72, 33, 46, -45, -58, -64, -44, -59, -47, -53, -10, -39, 7, -57, -34, 42, 55, 43, 2, 
  55, 12, 13, -46, -54, -51, 60, -15, -31, 43, -19, 15, -42, -29, -47, 40, 42, 48, -4, -15, -6, 66, -12, -9, -21, 5, 52, 49, -63, -54, 34, -44, 64, -49, -21, -33, -20, -66, 13, 38, 5, 21, -60, -24, 41, -42, 53, 44, -12, 49, 46, 53, -53, -16, -18, 69, 46, 56, 63, 43, -58, -55, 65, 66, 5, 41, -29, 71, -67, -15, -59, 20, 50, 26, 27, 31, -25, -21, -36, -26, 54, -66, 37, -48, 25, -39, 17, -49, 48, -23, -25, 4, 19, 47, 22, 4, 15, -14, -50, -53, -14, -60, 18, -19, 65, -35, -65, -16, -46, 24, -44, -5, -41, -5, 24, -8, -25, -46, -36, -7, 65, -18, -39, -7, -58, 6, 67, -53, -30, 30, -20, -11, 29, -11, -14, -14, 38, 38, -63, 51, 23, 12, 46, 9, 49, -66, 55, 14, -62, -60, -8, 31, -26, -45, 34, 72, 57, -37, 64, -51, -25, 46, -62, -14, -66, -45, 15, -23, 65, -20, -17, -64, -53, 41, 39, 12, -26, 39, -21, 23, -28, 6, 24, 23, 18, -58, -38, -44, 52, -47, 59, -26, 29, -41, -28, 54, -4, -13, 3, -41, -46, 67, 10, -62, -49, -61, -12, -8, -36, 7, 57, 38, 22, 25, 55, 18, -10, -64, 35, 37, 13, -14, 13, -16, -37, 47, 0, 55, -30, -20, -37, -19, 31, -24, 66, -42, -28, 72, -23, -30, 72, 56, -59, -55, 48, -37, 40, -13, 69, -66, 66, -64, 32, -67, 7, 71, 48, -7, 37, 8, 1, 63, -59, 45, 45, 52, -58, 62, -27, 65, 20, -36, -33, 40, -45, -4, 17, -27, 34, 31, 64, 17, 16, -8, 31, -3, -14, 20, 43, -68, 31, 20, -49, -44, 51, -21, -58, 27, -40, -72, 15, -28, -14, 26, -1, -4, -58, 45, -40, -33, -41, -56, -20, -10, -1, 51, 28, 17, 58, -68, -54, 6, 45, 27, -26, 29, -53, -10, 72, -38, -20, 57, -62, 
  -21, 53, 12, -3, -24, -56, 7, 70, -27, 15, -65, -25, -69, 33, 12, -1, -63, 20, -22, 6, -55, -58, -7, -35, 51, -18, 19, -10, -33, 69, -14, -7, 54, -43, 16, -65, 48, -41, 29, 61, 48, 27, -48, -19, 12, -69, -52, -47, -2, 45, 62, -10, 23, -29, 31, 42, 24, -9, 40, 5, 18, -67, 46, -55, -19, 0, -26, 56, 61, 32, 65, -32, 48, -52, -70, -45, -8, -11, 45, 0, -55, 26, -35, 55, -6, -54, 20, -5, 69, -12, 8, 5, -43, 54, 3, -6, -9, 23, -1, 43, -10, 21, 57, -40, 15, 11, 68, -47, 24, 38, -7, -6, 21, 41, 49, 13, 34, -54, 19, -44, -69, 39, -54, 10, 3, 65, -11, -27, -34, -63, 5, 23, -45, -24, 14, 61, 31, -54, 54, 65, 38, -1, 0, -39, 11, -40, 62, 65, 61, -33, 53, 18, 24, -64, 49, -5, -22, 54, -28, -4, 40, -69, 35, -57, 46, -69, 67, -39, 39, 6, -4, 58, -59, 1, -58, 19, -55, -20, 68, 34, 59, 24, -68, -53, -10, -39, 3, -35, 70, -59, -37, 69, 35, 8, 17, -47, 64, -4, 50, 4, -8, 26, 48, 44, -63, -54, -54, -23, 12, 46, 28, -26, -28, -28, 44, -59, -45, 60, 15, -69, -44, 70, -24, -37, 53, 24, -65, -18, -50, 54, -9, 51, 32, -31, -63, 9, 17, -10, -37, -32, 50, -63, 17, 12, 25, 25, 63, 25, -31, 8, 28, -21, 28, -21, 6, -69, 8, -66, 40, -3, -56, 36, -25, -31, -8, 70, -67, 65, 31, 12, 7, -58, 57, -35, 6, 38, -16, 10, 67, -29, -48, 36, -65, 25, 23, 0, -36, -58, -5, 13, 21, 11, -54, -6, -8, 57, -57, 67, -64, -46, -57, -61, 70, 11, -25, -43, -70, -32, -49, -20, 70, 70, 0, 11, -47, 57, -19, 63, -4, 22, 33, -57, 47, 59, 52, 70, -8, -53, -3, 25, 22, -14, 43, 
  38, -21, -29, -44, -51, -80, -32, 43, -32, 2, -7, -11, -7, 34, 22, -17, -37, -41, 65, 48, -39, 8, -38, 38, -35, -12, 64, -63, 52, 12, 41, -71, -7, -17, -63, 33, -71, 32, -64, 66, -13, 8, -19, -10, -44, -67, 62, -41, -12, -20, -54, 53, -67, 36, 20, -11, -2, 54, 35, -32, -52, 1, 45, -46, 28, 14, -68, 39, -57, -42, 7, 58, -25, 29, 25, 51, 31, 54, 28, -38, 46, 37, -2, 16, -45, -26, 38, 12, -40, -37, -57, 37, -34, 56, -27, -71, -40, -50, -70, -13, -50, -45, -2, -25, 63, -16, -14, -54, -45, -9, -11, 34, 48, -66, 15, -19, 33, -34, -65, -30, -43, 9, -65, -4, -32, -63, -12, 27, -21, -63, 24, -71, -7, 32, 42, 51, -60, 31, 47, 69, 26, 39, -34, -74, -55, 4, 46, -64, 58, 51, -59, 54, -12, 55, -31, -63, 11, -29, 47, -37, 64, 21, -17, -54, 40, -29, -27, 37, 50, 17, -70, 48, 43, 69, 29, -57, -71, -31, 27, -16, 48, -26, 59, 2, -33, -64, 43, -60, -56, -66, 35, -48, 43, -24, -64, -25, 38, 57, -18, -4, -45, -41, -22, -40, -13, 60, 68, 3, 0, 60, -16, 23, 53, -38, -74, -41, -2, -8, -39, 17, 1, 64, -3, -15, 10, -55, 21, 71, 68, -36, -29, -6, 35, -41, -45, 41, -4, -68, 1, -56, -31, -14, -3, -46, -59, 29, 26, 59, 59, -73, -54, -25, 7, 50, -1, -41, 59, 29, 63, 13, 65, 49, -72, 58, 44, 17, -59, -50, -10, 37, -56, -56, -59, -37, 31, 2, -41, -58, -65, 49, 48, -38, 20, -67, -48, -13, -2, -70, -34, -61, 5, -13, -21, -63, -68, -26, 42, -19, -74, 57, -35, 20, -69, -71, -8, 16, -32, 7, -46, -73, -45, 36, -51, -38, 16, 15, 21, -54, -17, -72, -11, -56, 51, 63, -34, -39, 59, -54, -73, 32, 28, -32, 20, 
  50, -67, 18, 57, 59, 23, 24, 35, -17, 64, -10, 73, -19, 32, -41, -62, -17, -31, -41, 72, 64, -40, -33, 2, -12, 72, -14, 26, -60, -4, 22, 72, 21, -55, -18, -58, -5, 16, 51, -25, -15, 17, 74, 73, 32, 1, 21, -52, -36, 40, -41, -12, -6, 18, -16, -38, -55, 53, 52, -62, -41, -16, 43, -45, 42, 25, 22, -23, -27, 76, -37, 17, -8, 34, -3, 11, -27, 37, -38, 40, 76, -64, 47, 2, 22, -63, 33, 34, 50, -20, -13, -55, 14, -34, -52, -24, -17, -56, 8, 70, -16, 48, 3, -55, -3, -18, -25, -55, 71, -19, -34, -60, 10, 29, 57, -32, 51, -14, -28, 26, -24, 18, -8, -59, 27, 26, -47, -57, -12, -10, 43, -2, -12, 13, -45, 43, -11, -12, 7, -2, -6, 43, 45, 59, 30, 47, 0, -49, 43, 16, 37, -32, 3, 38, 40, 16, -29, 7, -14, -23, -9, -60, 16, -12, -12, -23, -67, 29, -63, -13, 43, -23, -23, 11, -56, 43, -32, -66, -31, -5, -1, 61, -17, -33, -48, 8, 32, 52, 66, -5, -72, -22, 39, 61, -31, 22, 62, 44, -38, 24, -35, -7, -42, 10, -12, 59, -15, -44, -27, -13, -14, -40, -65, -3, 11, 26, 68, -68, -12, 50, -20, 15, 3, 45, 18, -33, -29, -14, -57, 27, 24, -39, -66, 58, 3, 20, 25, 39, 63, 41, 44, 17, -23, -8, 39, -12, -62, 7, -64, 61, -9, 51, -24, 38, 48, -61, -22, 64, -47, 43, -50, 30, 42, -31, -63, -16, 56, 17, 13, -48, 24, 11, -30, -30, 44, -62, -65, 48, -18, -53, 3, 59, 39, -17, 64, 24, -28, -24, 50, 1, 55, 70, -56, 15, -23, 9, 13, 46, -60, 4, -43, -71, 57, -36, 54, 13, 13, 55, 20, -45, -17, 26, 59, 72, -61, -62, 65, 17, -50, 27, 54, 55, 21, -36, -57, -59, -44, -45, 17, -49, 39, -34, -13, 
  29, 57, 43, -8, -49, 42, -6, -45, -10, -19, -2, 36, 36, -26, 9, -35, 24, -42, 63, 8, 57, 43, 55, 24, 39, 40, 43, -13, 52, -68, 33, -74, -16, -4, -61, -26, -65, 55, -60, 10, -35, -37, -63, -21, -51, 30, -25, -11, -35, 20, -69, -69, 69, -48, 25, 28, 5, 27, -11, -26, 40, -27, 52, -35, -1, -76, 53, 49, 41, -29, -29, -23, 7, -68, -28, -67, -42, -30, -36, 57, -38, -41, -58, -38, 54, 11, -7, 22, 41, 36, -3, -66, -67, -16, 54, -10, 60, 14, 29, -38, -51, -44, -29, 33, 5, 46, -22, 2, 17, -6, -33, 49, -1, 17, 55, 67, 24, -43, 60, -17, 51, 55, 1, -23, 33, -65, 9, 64, -66, 51, -67, 51, -73, -25, -54, -2, -51, 61, 20, 57, 61, -7, 47, -39, -58, 7, 32, -51, -69, -38, 63, 40, -35, -49, -36, 37, -71, -72, 32, -18, 39, 4, 8, -63, -22, -74, -69, 13, 8, 8, 49, -15, 3, 51, 51, -31, 56, -24, -74, 23, -63, -24, -59, -27, 0, 27, -63, -40, -62, 41, 35, 30, 1, 37, -58, 30, -12, -33, -66, 52, 46, 20, -26, -22, 20, -23, 8, -66, 55, 29, 63, -46, -52, -31, 55, 17, 61, -69, -69, 35, 52, 34, 6, -39, -33, -65, -45, -76, 44, -42, 24, -23, -37, -55, 17, 0, -1, 6, 31, 36, 0, 4, 73, -9, 48, -51, 1, 38, 61, 31, 18, -34, 55, 71, -38, 31, -62, 26, 55, 31, 43, 44, -12, -32, 47, 19, -34, -58, -68, -6, 77, 13, 5, 24, 48, 18, -46, 42, -61, -13, -35, 57, -21, -55, 70, 50, 17, 0, -51, -62, 35, 10, 72, 70, 10, 50, 30, -12, -75, 63, 20, 1, 23, 6, -41, -39, -72, 42, -36, -53, -24, -40, 22, 28, -48, 0, -63, -57, -34, -58, 61, -19, 57, 6, 1, 20, -53, 11, 20, -57, 19, 6, 34, 
  -41, -41, -36, 31, -7, 61, -43, -8, -42, -89, -69, -48, -59, 16, -19, 69, -2, 31, 51, -41, -20, 48, 21, 87, 84, 46, -8, 12, -4, 17, -40, -28, -44, 0, 47, 14, 52, 85, 40, 43, 35, 43, -22, 28, -13, -54, 34, 18, 78, -46, 61, 106, -37, -41, -53, -13, 43, -1, -79, 45, -37, -32, -63, 45, 19, -40, -93, -10, -36, 52, -24, 58, 45, -31, 5, -127, 102, 8, -37, 56, 45, 71, -68, -50, -53, 60, -41, -20, 61, 34, 74, 47, -10, 17, 21, 50, 8, -41, -33, -21, 41, -66, -59, -33, -5, -29, -93, -19, 38, 37, 31, -9, -10, -54, 74, 52, 78, 70, 70, 54, 76, -51, -15, 80, -18, 56, 65, -21, -31, 28, -26, -31, -36, -27, -53, 46, 76, 5, 22, -55, 62, -60, 34, 3, 20, 20, 91, -19, -65, -39, -82, -53, -29, -47, 78, -67, -51, 30, -63, -5, 6, -44, 51, 39, 21, -75, -38, -29, -9, -50, 12, 79, 61, -5, -70, -42, 30, -25, 34, -22, -42, 28, 40, 69, 53, -49, 12, 39, 5, 16, 17, -19, -19, 74, 17, -50, -26, -20, -57, -5, 36, 14, -52, -28, 28, 38, 46, -55, 60, -3, -7, -8, 8, 44, 11, -27, 28, 48, 36, 8, 12, 4, -69, -64, -25, -29, 2, -41, 36, 95, -46, -29, -15, -12, -62, 15, 97, -64, -71, -109, -36, 21, 47, -77, 17, -7, -45, -24, 20, 71, -43, 7, -36, -50, 37, -75, -50, 44, 34, -39, 105, 54, 59, -18, 73, -1, 30, 80, 0, 46, 22, -30, 58, 91, 33, -73, 20, 21, 75, 64, -79, 3, -11, 6, 11, -48, -45, 56, -12, -5, 1, -35, 0, 25, -27, -59, -26, -74, -108, -60, 54, -63, 94, 14, 53, 40, -30, -18, -24, 0, 65, 56, -5, 14, 19, -13, -1, -50, -54, -49, -46, -32, -21, 28, 35, 2, -1, 2, 48, 32, -48, -41, -13, 
  55, -21, 38, -64, -53, -41, 31, -6, -23, -2, -74, 1, 1, -63, 22, -56, -18, -25, 6, -5, -81, 15, -85, 40, 42, -33, -58, -43, 30, 26, -90, -81, -80, -33, 49, 37, -41, -57, -53, 20, 22, -18, -7, -27, -21, 47, -12, -82, 31, 10, -44, -57, -30, -22, 22, 42, -67, -52, -8, -33, -3, -4, 13, 22, -5, -100, -88, 11, 11, 9, 42, -16, -39, -51, -10, 48, 29, -42, 34, 55, -42, -62, 5, -70, -51, 32, -40, 5, -35, -47, -12, 53, 18, -46, -22, -20, -59, 10, -76, 17, 40, 26, 20, 14, 17, -56, -23, -82, 37, -11, -30, 12, 7, -1, -69, 6, -22, 62, -25, -41, -35, -58, -45, -52, 52, 32, -58, 4, 26, -67, 36, -40, -67, -82, 11, 9, -19, -72, 62, 31, -35, -70, -44, 11, -23, -79, -6, -37, 22, -27, -9, 36, 32, 56, -41, -47, -36, -4, -23, -9, 52, -67, 48, 12, -12, -11, 0, -58, -22, -9, 22, -37, -54, -77, 27, 45, 15, -9, 9, 40, 9, -70, 8, -75, -24, 43, -101, 14, 69, 7, -53, -70, 44, -75, -2, 23, -22, -44, -73, -18, 14, 47, 20, -35, -24, 32, 14, 31, 16, -22, -10, -39, 51, 19, 10, -49, -57, 57, 12, -16, -12, -17, -33, -62, -11, 19, 63, 2, -31, 58, -39, -67, -10, 23, -76, 32, 37, -43, -8, -5, -29, 38, -36, -25, 42, -11, -52, 35, -40, 74, 18, -38, -74, 64, -16, 55, -5, -4, -38, -12, -46, -62, 0, 42, 38, 26, -15, 8, -48, -26, 69, 46, -69, 12, 35, -6, 1, 23, 52, -8, 2, 43, -18, 20, 22, -44, -1, 45, 60, 39, -63, -6, -35, -65, -63, 53, 43, 70, 9, 17, -37, 60, 5, 41, -26, 32, 29, -34, -3, -9, 78, -21, -34, 8, 40, -20, -43, 29, 2, -22, 13, 35, -27, 46, 42, 35, -57, 3, -48, 56, -74, 19, -61, 
  -2, 68, 50, -34, -71, -59, 73, -10, 67, 5, 77, 79, 54, 62, -23, 40, -18, -7, 76, 14, 0, -3, 78, 6, 30, 43, 64, 52, 85, 47, 12, 2, 14, -17, 33, 1, -36, 20, -5, 27, 28, 46, 65, -4, -33, -17, 32, 48, -55, 3, -51, 43, 20, 26, 80, 59, 46, 1, 24, -55, 54, 46, 15, -4, 54, 62, 66, -11, -9, -17, -55, 7, -22, -19, 65, 71, 6, 58, 31, 22, 41, 77, -41, -19, -50, -51, -34, 40, -7, 49, 41, -51, -60, -52, 20, 40, 40, 48, -8, -9, 7, 14, 66, 66, 62, 49, 28, 77, 9, -50, 0, 11, 13, 26, -57, -35, -63, 2, 45, 28, 73, 67, 9, -10, -1, -17, -32, -41, 81, 63, -34, 49, 44, 0, -53, 19, -47, 60, -29, 43, 0, 24, -5, 37, 48, -53, -5, -14, -36, -10, 61, -34, -2, 16, -4, 43, 47, 87, 10, -5, 70, -16, 11, 46, -55, 46, -12, -33, 60, 27, 38, 4, 64, -26, 76, 12, 67, 70, 2, 71, -26, 59, 43, 52, -46, 36, 45, 26, 67, 53, -51, -16, 0, -59, -16, 66, 54, 57, -56, -24, 0, -40, 78, -31, -39, 48, -29, -41, 7, 9, -7, 8, -43, 32, 0, -23, -1, -4, 10, 68, 17, 77, -14, -20, 5, 13, 32, -11, 23, -99, -47, -29, 17, 9, 30, -20, -13, 31, 16, 18, 17, -68, -65, 35, -6, -10, 3, 19, -16, 8, 40, -37, 18, -20, -74, -48, 27, 32, 70, 1, -59, -23, 17, -51, -6, -32, -5, 16, -23, 25, -107, -18, 60, -36, -50, 1, 33, -49, 24, 13, 24, -17, 35, -29, 16, -41, -71, -20, 28, -13, -14, -20, -64, -61, -57, -29, 49, 74, 51, 42, 20, -11, -10, 37, 62, 65, -20, -46, 64, 31, -22, 38, 22, 0, -87, 19, -7, 39, -38, 55, -33, 27, 22, 8, 6, 39, 68, 11, -85, -47, -57, -6, 52, 
  -37, -87, 23, -21, 46, -65, -45, -80, -68, 22, -26, -74, 11, 34, -32, 44, 0, -32, 51, -27, 25, 33, -51, 38, 28, -31, -7, -44, 49, -33, -37, 6, -78, 52, 35, 34, 44, -49, -53, -40, -5, 17, -59, -43, -80, -42, 50, 24, -19, 62, 37, -70, -78, 8, -58, -81, -61, 13, -26, 23, -32, -61, -67, 28, 2, 2, 29, 17, -9, 36, -14, -50, 15, 24, 14, -107, -3, 53, -61, -68, 3, 19, 48, 35, 56, 46, -72, -47, -2, 37, -56, 60, 6, 7, -56, -73, 20, 2, 37, -28, -60, 26, 21, 9, -13, -70, -13, 47, 22, 1, -18, -19, 1, -58, -49, 7, -33, -22, 65, 38, 41, -7, 21, -39, 23, 27, -75, 32, -43, 54, -10, 35, 47, -14, 14, 61, 32, -9, 46, 63, 34, 3, 48, -23, -36, -32, -71, 38, -30, -92, 26, -49, 1, 18, -10, 59, -58, 31, -34, -39, 48, -25, -74, -33, -58, -74, -10, 64, -40, -46, 52, -50, -72, 16, 15, 24, -41, 1, -49, -81, -67, -29, -37, -23, 40, -57, -56, -54, -37, -47, -7, 65, 8, 37, -41, 61, -28, 14, -47, -42, 0, 25, -57, 50, -3, -70, 5, 61, 5, -17, 21, -77, -47, 29, 53, 38, 39, -48, -35, -36, 20, 54, -6, -22, 59, 60, 44, -27, -52, 49, 18, -26, 30, 46, -41, -41, 31, 12, -64, 26, -50, 44, 70, -66, -66, 15, 39, -45, -39, 48, -65, 43, -63, 51, 36, -66, -29, 65, -12, 58, 51, 50, 62, 40, -1, -44, -17, -49, 11, -44, 92, 44, -25, -44, -19, 69, 25, 6, 24, -12, 13, -11, 75, -38, -13, 4, -12, 23, 45, -65, 20, 11, 12, 12, 71, -49, 16, -35, 48, -52, 62, 51, 40, 51, 6, -15, -31, -8, 69, 56, 21, 68, -24, 15, -22, 75, -6, -12, -17, 68, -73, -46, 0, 60, -4, 59, 56, 23, -40, 3, -12, 66, -72, 
  20, -25, -27, -22, 46, 57, -67, 87, 8, 44, 35, 33, 67, 3, -19, -48, -60, 12, -43, -15, -33, -42, 6, -29, -27, -53, -22, 83, 6, 31, 46, -49, -44, -53, 9, 39, 44, -14, 25, -36, 54, 24, 51, -48, 57, -35, 14, 57, 71, 48, 14, 18, -61, -36, 81, -6, 21, 64, 53, -18, -7, -20, 5, -44, 47, 72, 75, 59, 17, 64, -61, -12, 57, 6, 37, 3, -49, -46, 17, -31, -20, 44, 2, 1, 55, 20, 60, 58, -13, -72, 6, 11, -40, 29, -62, -24, -26, 59, -3, -30, 31, 84, 32, -32, -19, 57, 27, -2, -13, 36, 60, -78, -62, 27, -49, 39, 30, -56, 31, -68, -10, -30, -37, -23, 59, 5, -58, 65, 36, 74, -49, -48, 39, 15, -54, -67, 29, -21, -28, 55, 64, 7, 40, -67, -24, 58, 20, -19, 50, 94, -18, -55, -55, -51, -14, 81, -31, 7, 61, -20, -16, 40, 36, 21, 8, 24, 65, -54, -36, -6, 76, -39, 23, 17, -8, -50, 8, 42, 4, 12, 30, -60, -34, 6, 13, 32, -25, 0, 63, 40, -15, -76, 26, 41, -17, 11, -51, -7, 37, -66, -28, 17, 31, 52, 64, 35, 36, -25, -25, 50, 32, 79, 37, -26, -32, 76, -5, -4, -7, 80, -45, 86, 49, 60, -41, 28, -60, 55, 53, 16, -50, 21, 46, 24, -13, -84, -83, -64, 22, 67, 23, -38, -62, 32, -41, 62, -43, -13, -21, 62, 62, -26, -41, 57, -79, -51, 12, -47, 16, -17, -74, 61, -39, -16, -56, -19, -61, 15, 55, -88, -62, 8, -50, -25, 42, -15, -2, -33, -43, -39, 29, 51, -33, -44, 57, 26, 3, 48, 38, -11, -6, -72, -23, 60, 27, 33, -3, 34, 103, -19, 54, 64, -85, -41, -65, -50, 10, 12, 55, 44, -124, 33, -24, 64, -39, -67, 20, -43, -32, -2, -45, -22, -75, 41, 46, -16, -10, -45, 0, 14, 12, -37, -2, 
  67, -35, -39, 0, -9, -55, -43, 31, 40, 38, 80, -63, -62, 55, -76, -29, -60, 20, 44, -52, 67, 71, -35, 42, -70, -36, 1, -45, 63, -6, 82, -27, -30, 48, -4, -37, -52, 9, 33, -75, -80, 48, -80, 36, -20, 39, -18, -36, -68, -26, -17, 25, 19, -14, -44, -34, 69, -10, 70, -43, 1, 32, -34, 70, 12, 72, 69, 46, -10, 37, 7, -41, 70, -20, 64, 69, -39, 8, -13, 6, 38, 11, -38, -22, 20, -56, 52, 0, -69, 6, -38, 14, -11, 28, -63, 9, 53, 45, 47, 69, -58, 76, -40, 60, -47, -10, 58, -62, -25, -38, -24, -13, 54, 49, -70, 39, 60, -73, 43, 49, -45, -18, -16, -50, -57, -65, -12, 67, 65, -44, -24, -43, 7, 5, 46, 31, 59, 32, -60, 53, -23, 35, -24, -36, 44, 51, 14, -32, 45, 69, -18, -57, 47, 42, 30, -34, -21, 47, -14, -57, 19, 35, -1, -6, -57, -25, 39, 22, 58, -23, 53, 25, -33, -39, -49, 43, 62, 39, 34, 50, -71, -50, -48, -1, 20, 20, 43, 27, 57, 15, -63, -3, -33, 56, -24, -23, -65, 10, 41, 46, 62, -70, 58, -31, -71, 41, -65, -27, -7, 27, 25, 39, -28, -13, -14, 53, -31, -64, -69, 16, 0, 71, -32, 40, 34, 60, -15, -5, -43, -40, 46, 66, -25, 6, -27, -41, -6, 64, -43, -9, -17, 43, 60, -6, -3, -45, -52, 13, 6, -7, 12, -33, -19, 22, 10, -40, 32, -14, -48, 16, 28, -58, 50, -24, -12, 3, -43, -60, -28, 21, 19, -46, 71, 43, 62, -32, 4, -43, 55, -50, -5, -7, -50, 33, 47, 34, -62, 7, -28, -26, -45, -13, 39, -56, -21, 12, 62, -17, -36, -32, -14, 32, 29, -94, 11, -48, -21, 27, -35, 18, -22, -41, 68, 3, -77, -27, -26, 73, -28, 33, -22, 72, -67, -19, -63, 43, 24, -64, -31, 38, 9, -30, -58, 
  -10, 59, -46, -67, -61, 13, -15, 2, 16, 14, -14, 19, -48, 25, 25, 47, 3, 23, 16, 34, -72, 51, -66, 23, 9, -8, -40, -34, -22, -48, 10, -34, -34, 29, -13, 7, -8, -74, 16, 58, 43, -29, 16, -55, 41, -52, -72, -27, -60, 40, 22, -13, 43, 52, 20, -48, 55, 23, -59, 51, -5, -50, 5, -39, 5, 22, 4, -48, 1, 39, -66, 52, 51, 56, 19, 45, -23, 8, 51, 17, -58, -51, -1, 57, 61, 45, -2, 28, 32, 63, -10, 62, 7, 38, 59, 41, -66, 27, 30, 24, 45, 52, 58, -30, 39, -53, 2, 20, 62, -48, 13, -64, -68, 14, 36, -50, -28, -65, -7, -12, -43, 8, -16, -33, 19, -23, -49, -41, -29, -61, -20, -29, 6, 51, -55, -36, -46, -29, 1, 2, -46, 12, -36, -11, 50, 4, 59, 0, -14, -63, 36, -25, -27, 48, 36, 19, -43, 39, -45, -66, -48, 58, -65, 32, -3, -30, -71, 37, 36, -4, -24, -42, -47, -55, 28, 59, -17, -76, -69, -25, 63, -38, -54, -47, -27, 7, -10, -22, -3, -73, -65, 37, 15, -66, 29, -63, -67, -65, 11, 20, 45, 51, -19, -30, 46, -11, 23, 42, -50, -70, -14, -47, -36, 51, -26, 50, 41, 27, -6, -55, -43, -69, 1, 36, -31, 2, 28, 2, -22, -2, 4, -21, 69, -54, -25, -38, -44, -34, 32, 28, -38, 59, -64, 20, -53, 20, 13, -29, 51, 22, -8, -50, 40, 47, -62, 12, 71, 40, -35, -61, -49, -9, 26, 63, 41, -64, 23, 62, 5, 16, -27, 21, -5, 0, 15, 19, 35, -21, -26, 16, -30, 40, -44, 64, -26, -3, -35, 62, 14, -27, 72, 31, 26, -37, -60, -31, -65, -54, -22, 39, 20, -9, 57, -60, 51, -1, 43, -11, 11, 77, -36, -14, -17, 24, -36, -52, 66, -39, 68, 79, 43, 55, -28, -55, 28, 38, 27, -49, -56, 7, 35, 18, -40, 
  5, -6, -41, -24, 39, -26, -31, -36, 38, -41, -46, -12, 21, 24, -29, 28, -48, -19, 41, -15, -46, -33, 32, -35, 31, -12, 5, 70, -37, 70, 42, 15, 63, -32, -8, -21, 31, -67, -58, -15, -11, -21, 3, 48, -10, -55, 71, -49, -1, -19, 6, -14, -15, -50, 5, -48, 0, -1, 61, -48, -45, 69, -26, 18, -44, 48, 18, -18, 6, 71, -54, -7, -21, 79, 57, 80, -48, 7, -53, 20, 20, 72, -55, -7, 8, 53, 9, -45, 58, -21, 7, 65, 69, 4, 12, -16, 10, -26, 59, -29, 2, 8, -2, 6, 80, 72, 54, 72, -4, -33, 53, 2, 35, -51, -72, 20, -31, 46, -53, -70, 24, -19, -51, -15, 59, 3, -12, -57, 68, 69, -9, 58, 2, 27, -46, -1, 45, -47, 67, -64, 61, -3, 43, -25, -38, 34, 57, 59, 4, 33, -29, -19, 44, 28, -12, -24, 36, 70, -39, -15, -68, 18, -17, 57, 51, -29, 73, -61, -6, 26, 41, -22, 32, 51, 41, -9, 31, 49, -56, 73, 48, -33, -54, 33, 65, -37, -7, 47, -79, 22, 63, -74, -57, 60, 64, 39, 16, -38, -27, 16, -40, 44, -47, -21, 61, 31, -61, -8, -48, -27, -51, 71, 45, 16, -27, -41, 66, 6, 54, 24, -59, 3, 67, -58, -19, -7, 37, -14, -60, -29, -69, -48, 55, -33, 33, 9, 51, 37, 86, 89, -27, -57, -47, -52, -35, -25, 5, -15, 33, 23, -5, 49, -44, -23, -33, 5, 34, 21, -50, 66, 13, -5, -16, -3, -8, 25, -19, -41, -74, -61, -74, 24, -31, -44, -72, -52, -53, -63, -42, -24, -50, -54, -9, 59, 21, 33, 1, -40, 8, 66, -8, -65, 10, -20, -8, -16, -61, 78, 3, -28, 71, 6, -4, 6, 7, -6, -2, -8, -49, 28, -3, -48, 40, -30, 37, -6, -19, -20, 3, 74, 68, -12, 45, -52, 50, -31, 6, -7, -40, -62, 66, 55, -8, 
  -6, 77, 58, 46, 45, -18, -24, 76, 39, 12, -8, 81, -18, 47, -49, -18, -39, 35, 77, -28, 53, -19, -43, 72, -30, -41, -17, 40, 9, -21, 10, -37, 12, 29, 21, 86, 78, -35, 24, -74, -63, -16, 77, -15, 24, -43, 23, 83, -51, 42, -35, -49, 59, 35, 34, -33, 60, -49, -1, -36, 17, -54, 47, 73, -21, 46, 4, -3, 15, -33, 40, -35, 50, 77, 40, 66, -62, -49, 54, -46, -48, -53, -45, 30, 51, 75, -17, 21, 17, 34, 3, 71, -57, -37, 56, 55, 38, -24, 66, -57, 76, 47, 18, -27, -21, -48, -35, 72, 25, -65, -50, -31, 43, 5, -40, 32, 53, 70, -31, -5, -38, 70, 23, 67, 6, 32, 38, 70, 76, 73, 45, 38, -29, 68, 13, -10, 70, 48, 21, -12, -65, -51, -60, 54, 38, 8, 14, 42, 72, 16, 42, 68, -58, -40, 26, -2, -3, 42, 43, -25, -50, -61, -63, 4, 63, 65, -48, -26, 72, 28, -56, -24, 52, 55, 67, 64, 10, 5, -12, 63, 62, 51, 65, -37, -67, 45, 100, -19, 19, -48, 54, 62, 8, 75, 70, -47, 32, 69, 38, -26, 12, -20, 25, -30, 31, -19, 40, -8, 43, -17, -41, 6, 6, 18, 1, 53, -17, -40, 29, -51, -4, -1, 4, -28, -72, 2, 5, -23, -66, -7, 64, -2, 33, 34, 35, -30, -19, 20, 42, -28, 61, -74, -44, -65, -41, -6, 51, 31, 52, -35, 19, 49, -49, -33, 11, -52, -74, 10, -46, 78, 43, 61, -3, 39, 1, -30, -59, 14, -34, -40, 31, -35, 42, -88, 49, 28, 54, 14, 8, 20, -21, -22, -57, -21, -55, 17, -63, -63, 12, -19, -47, 7, -77, -17, 11, -72, -11, -11, -31, 61, 37, 26, 31, -43, -16, 16, -64, -17, 6, -15, -36, -103, 38, 33, -85, 3, -66, -16, 12, 13, -63, -56, 18, -78, 11, -26, -74, 22, 47, 26, -79, -28, -9, 
  -61, -19, 39, -72, 32, 8, -44, -5, 0, -23, -63, -25, -58, -48, -50, -35, 7, -40, -37, 29, -33, 61, -36, 58, -29, -59, -1, -18, -61, -47, 35, -28, -43, -62, 71, 58, 22, -49, -55, -23, -52, 14, -40, 38, 4, -9, 73, 18, -54, -63, 6, -58, 34, -38, 47, -48, -44, -42, -17, 52, -20, -35, -44, 57, 37, -35, 64, -55, 6, 64, 46, 40, 55, -30, -68, 19, 62, 10, -22, 26, 22, 32, 64, 0, 36, 15, 62, 9, -2, -54, -65, 58, 47, -21, -49, -49, 41, 18, 69, -41, -69, 71, 19, 9, -33, 4, -34, -49, 6, 41, -46, 6, -72, -38, -40, -53, 32, 31, -60, -61, 63, -37, -16, 15, 22, 70, -13, -27, 6, 7, -60, -30, 4, -2, -8, -36, 21, 70, -28, 24, 52, -20, -8, -27, 61, 54, 19, 24, -14, -16, -5, 24, 55, 34, 1, -33, 35, -27, 69, -8, 21, -29, 27, -56, -21, -59, -27, 73, -4, 45, 60, -50, 69, 54, -5, 37, -42, -33, 51, 46, 33, -26, -62, 65, 57, -55, -63, -39, -11, 7, -1, 11, -19, -27, 15, -25, -26, -29, 43, -51, 47, -53, -23, 30, -10, -32, -41, 17, -15, -45, 7, 9, 55, 67, -33, 19, 55, 58, -8, 66, -36, 56, -16, 63, -13, 50, -50, 30, -7, -23, 19, -16, 48, -59, 8, -59, -34, 8, 40, -59, 15, -19, -3, -3, -27, 13, 16, -30, 4, -7, -15, 68, 47, -56, -36, -18, 71, -67, 0, 31, -35, 45, 52, -63, -68, 51, 3, 49, -52, 46, 66, -50, -20, 20, -21, -16, -58, -50, 48, 9, 71, 5, -15, 35, -59, -56, -6, -8, 21, 49, 7, -49, -10, 10, -12, -11, -2, 14, -60, 28, -28, 60, 66, 48, 11, -45, -54, 25, 6, 2, -25, 56, 4, 50, -21, 56, -19, 59, 6, -1, 3, 39, 16, 44, 29, -35, 13, 17, 68, 22, 53, 63, 26, 
  10, 1, 28, -12, 9, -7, 39, -6, 55, 43, -55, 61, 59, 23, 18, -18, 6, -60, -32, 25, -24, -56, 66, -38, 8, 7, -46, -30, 29, 52, -49, 10, 66, -37, 8, 24, -60, 36, 32, 15, -29, -35, 35, 52, 14, -45, -68, 16, 3, 5, 28, 51, -47, 34, 25, -50, 35, -63, -55, 69, -44, 45, -61, 16, -53, -22, -26, -51, -55, -39, -67, 41, -35, -27, -3, -21, -34, -51, -47, -22, 66, 3, 1, -59, -9, 36, 73, 8, 41, 18, -50, 27, -36, 4, 34, -58, -36, -33, 86, -33, -18, 53, 54, -54, -15, 34, -75, -42, 0, 47, 70, 74, -45, -65, 48, 22, 14, -16, -12, 13, 88, 27, 47, -18, 37, 66, -48, 9, -26, 10, -40, 14, 59, 43, 19, 83, 46, 66, -26, -16, 36, -45, 33, 25, 12, 55, -32, 55, -6, 6, -77, 50, -3, -12, 22, -57, -43, -8, 6, 50, -37, -49, 72, -10, 35, -53, 46, 50, 61, -41, -21, 67, 39, -4, 8, 40, -40, 21, -52, -29, 33, -33, -27, -3, -20, 34, -100, -33, -6, 79, -9, 2, 86, 47, 20, 57, -43, -40, 75, -43, 38, -61, 18, 49, 47, -4, -31, 66, 28, 31, -5, 0, -17, 13, 29, 27, -24, 44, 50, -31, -25, 49, 39, -20, 31, 72, -54, -31, -22, -17, 67, -53, -36, -26, -17, 52, -28, 55, -16, -34, 51, -61, -29, -92, -73, -31, -63, 58, 11, -51, -86, -28, -87, 36, -28, 21, 58, -36, 48, -25, -3, 38, -53, 2, 86, -33, 78, 36, 56, -29, 70, 66, 46, 40, 16, -44, -27, 38, 25, 28, -53, 16, 44, 4, 8, 19, -20, 56, 17, 49, 50, 50, -26, 19, -13, 38, -22, 6, 1, 63, 25, -29, 101, 98, -42, -8, -46, 95, -36, -54, 81, -28, -86, 12, -57, 58, -19, -29, -41, 22, -17, -37, -77, -51, -28, 19, -53, 8, -53, -27, -31, -32, -89, 
};
const TfArray<2, int> tensor_dimension6 = { 2, { 20,333 } };
const TfArray<1, float> quant6_scale = { 1, { 0.0018363487906754017, } };
const TfLiteAffineQuantization quant6 = { (TfLiteFloatArray*)&quant6_scale, (TfLiteIntArray*)&g0::quant1_zero, 0 };
const TfArray<2, int> tensor_dimension7 = { 2, { 1,20 } };
const TfArray<1, float> quant7_scale = { 1, { 0.070686839520931244, } };
const TfArray<1, int> quant7_zero = { 1, { -128 } };
const TfLiteAffineQuantization quant7 = { (TfLiteFloatArray*)&quant7_scale, (TfLiteIntArray*)&quant7_zero, 0 };
const TfArray<2, int> tensor_dimension8 = { 2, { 1,10 } };
const TfArray<1, float> quant8_scale = { 1, { 0.064920172095298767, } };
const TfLiteAffineQuantization quant8 = { (TfLiteFloatArray*)&quant8_scale, (TfLiteIntArray*)&g0::quant7_zero, 0 };
const TfArray<2, int> tensor_dimension9 = { 2, { 1,3 } };
const TfArray<1, float> quant9_scale = { 1, { 0.094006143510341644, } };
const TfArray<1, int> quant9_zero = { 1, { 82 } };
const TfLiteAffineQuantization quant9 = { (TfLiteFloatArray*)&quant9_scale, (TfLiteIntArray*)&quant9_zero, 0 };
const TfArray<1, float> quant10_scale = { 1, { 0.00390625, } };
const TfLiteAffineQuantization quant10 = { (TfLiteFloatArray*)&quant10_scale, (TfLiteIntArray*)&g0::quant7_zero, 0 };
const TfLiteFullyConnectedParams opdata0 = { kTfLiteActRelu, kTfLiteFullyConnectedWeightsFormatDefault, false, false };
const TfArray<3, int> inputs0 = { 3, { 0,6,5 } };
const TfArray<1, int> outputs0 = { 1, { 7 } };
const TfLiteFullyConnectedParams opdata1 = { kTfLiteActRelu, kTfLiteFullyConnectedWeightsFormatDefault, false, false };
const TfArray<3, int> inputs1 = { 3, { 7,4,3 } };
const TfArray<1, int> outputs1 = { 1, { 8 } };
const TfLiteFullyConnectedParams opdata2 = { kTfLiteActNone, kTfLiteFullyConnectedWeightsFormatDefault, false, false };
const TfArray<3, int> inputs2 = { 3, { 8,2,1 } };
const TfArray<1, int> outputs2 = { 1, { 9 } };
const TfLiteSoftmaxParams opdata3 = { 1 };
const TfArray<1, int> inputs3 = { 1, { 9 } };
const TfArray<1, int> outputs3 = { 1, { 10 } };
};

TensorInfo_t tensorData[] = {
{ kTfLiteArenaRw, kTfLiteInt8, (int32_t*)(tensor_arena + 0), (TfLiteIntArray*)&g0::tensor_dimension0, 333, {kTfLiteAffineQuantization, const_cast<void*>(static_cast<const void*>(&g0::quant0))}, },
{ kTfLiteMmapRo, kTfLiteInt32, (int32_t*)g0::tensor_data1, (TfLiteIntArray*)&g0::tensor_dimension1, 12, {kTfLiteAffineQuantization, const_cast<void*>(static_cast<const void*>(&g0::quant1))}, },
{ kTfLiteMmapRo, kTfLiteInt8, (int32_t*)g0::tensor_data2, (TfLiteIntArray*)&g0::tensor_dimension2, 30, {kTfLiteAffineQuantization, const_cast<void*>(static_cast<const void*>(&g0::quant2))}, },
{ kTfLiteMmapRo, kTfLiteInt32, (int32_t*)g0::tensor_data3, (TfLiteIntArray*)&g0::tensor_dimension3, 40, {kTfLiteAffineQuantization, const_cast<void*>(static_cast<const void*>(&g0::quant3))}, },
{ kTfLiteMmapRo, kTfLiteInt8, (int32_t*)g0::tensor_data4, (TfLiteIntArray*)&g0::tensor_dimension4, 200, {kTfLiteAffineQuantization, const_cast<void*>(static_cast<const void*>(&g0::quant4))}, },
{ kTfLiteMmapRo, kTfLiteInt32, (int32_t*)g0::tensor_data5, (TfLiteIntArray*)&g0::tensor_dimension5, 80, {kTfLiteAffineQuantization, const_cast<void*>(static_cast<const void*>(&g0::quant5))}, },
{ kTfLiteMmapRo, kTfLiteInt8, (int32_t*)g0::tensor_data6, (TfLiteIntArray*)&g0::tensor_dimension6, 6660, {kTfLiteAffineQuantization, const_cast<void*>(static_cast<const void*>(&g0::quant6))}, },
{ kTfLiteArenaRw, kTfLiteInt8, (int32_t*)(tensor_arena + 336), (TfLiteIntArray*)&g0::tensor_dimension7, 20, {kTfLiteAffineQuantization, const_cast<void*>(static_cast<const void*>(&g0::quant7))}, },
{ kTfLiteArenaRw, kTfLiteInt8, (int32_t*)(tensor_arena + 0), (TfLiteIntArray*)&g0::tensor_dimension8, 10, {kTfLiteAffineQuantization, const_cast<void*>(static_cast<const void*>(&g0::quant8))}, },
{ kTfLiteArenaRw, kTfLiteInt8, (int32_t*)(tensor_arena + 16), (TfLiteIntArray*)&g0::tensor_dimension9, 3, {kTfLiteAffineQuantization, const_cast<void*>(static_cast<const void*>(&g0::quant9))}, },
{ kTfLiteArenaRw, kTfLiteInt8, (int32_t*)(tensor_arena + 0), (TfLiteIntArray*)&g0::tensor_dimension9, 3, {kTfLiteAffineQuantization, const_cast<void*>(static_cast<const void*>(&g0::quant10))}, },
};

#ifndef TF_LITE_STATIC_MEMORY
TfLiteNode tflNodes[4] = {
{ (TfLiteIntArray*)&g0::inputs0, (TfLiteIntArray*)&g0::outputs0, (TfLiteIntArray*)&g0::inputs0, nullptr, nullptr, const_cast<void*>(static_cast<const void*>(&g0::opdata0)), nullptr, 0, },
{ (TfLiteIntArray*)&g0::inputs1, (TfLiteIntArray*)&g0::outputs1, (TfLiteIntArray*)&g0::inputs1, nullptr, nullptr, const_cast<void*>(static_cast<const void*>(&g0::opdata1)), nullptr, 0, },
{ (TfLiteIntArray*)&g0::inputs2, (TfLiteIntArray*)&g0::outputs2, (TfLiteIntArray*)&g0::inputs2, nullptr, nullptr, const_cast<void*>(static_cast<const void*>(&g0::opdata2)), nullptr, 0, },
{ (TfLiteIntArray*)&g0::inputs3, (TfLiteIntArray*)&g0::outputs3, (TfLiteIntArray*)&g0::inputs3, nullptr, nullptr, const_cast<void*>(static_cast<const void*>(&g0::opdata3)), nullptr, 0, },
};
#else
TfLiteNode tflNodes[4] = {
{ (TfLiteIntArray*)&g0::inputs0, (TfLiteIntArray*)&g0::outputs0, (TfLiteIntArray*)&g0::inputs0, nullptr, const_cast<void*>(static_cast<const void*>(&g0::opdata0)), nullptr, 0, },
{ (TfLiteIntArray*)&g0::inputs1, (TfLiteIntArray*)&g0::outputs1, (TfLiteIntArray*)&g0::inputs1, nullptr, const_cast<void*>(static_cast<const void*>(&g0::opdata1)), nullptr, 0, },
{ (TfLiteIntArray*)&g0::inputs2, (TfLiteIntArray*)&g0::outputs2, (TfLiteIntArray*)&g0::inputs2, nullptr, const_cast<void*>(static_cast<const void*>(&g0::opdata2)), nullptr, 0, },
{ (TfLiteIntArray*)&g0::inputs3, (TfLiteIntArray*)&g0::outputs3, (TfLiteIntArray*)&g0::inputs3, nullptr, const_cast<void*>(static_cast<const void*>(&g0::opdata3)), nullptr, 0, },
};
#endif

used_operators_e used_ops[] =
{OP_FULLY_CONNECTED, OP_FULLY_CONNECTED, OP_FULLY_CONNECTED, OP_SOFTMAX, };


// Indices into tflTensors and tflNodes for subgraphs
const size_t tflTensors_subgraph_index[] = {0, 11, };
const size_t tflNodes_subgraph_index[] = {0, 4, };

// Input/output tensors
static const int in_tensor_indices[] = {
  0, 
};

static const int out_tensor_indices[] = {
  10, 
};


size_t current_subgraph_index = 0;

static void init_tflite_tensor(size_t i, TfLiteTensor *tensor) {
  tensor->type = tensorData[i].type;
  tensor->is_variable = false;

#if defined(EI_CLASSIFIER_ALLOCATION_HEAP)
  tensor->allocation_type = tensorData[i].allocation_type;
#else
  tensor->allocation_type = (tensor_arena <= tensorData[i].data && tensorData[i].data < tensor_arena + kTensorArenaSize) ? kTfLiteArenaRw : kTfLiteMmapRo;
#endif
  tensor->bytes = tensorData[i].bytes;
  tensor->dims = tensorData[i].dims;

#if defined(EI_CLASSIFIER_ALLOCATION_HEAP)
  if(tensor->allocation_type == kTfLiteArenaRw){
    uint8_t* start = (uint8_t*) ((uintptr_t)tensorData[i].data + (uintptr_t) tensor_arena);

    tensor->data.data =  start;
  }
  else {
      tensor->data.data = tensorData[i].data;
  }
#else
  tensor->data.data = tensorData[i].data;
#endif // EI_CLASSIFIER_ALLOCATION_HEAP
  tensor->quantization = tensorData[i].quantization;
  if (tensor->quantization.type == kTfLiteAffineQuantization) {
    TfLiteAffineQuantization const* quant = ((TfLiteAffineQuantization const*)(tensorData[i].quantization.params));
    tensor->params.scale = quant->scale->data[0];
    tensor->params.zero_point = quant->zero_point->data[0];
  }

}

static void init_tflite_eval_tensor(int i, TfLiteEvalTensor *tensor) {

  tensor->type = tensorData[i].type;

  tensor->dims = tensorData[i].dims;

#if defined(EI_CLASSIFIER_ALLOCATION_HEAP)
  auto allocation_type = tensorData[i].allocation_type;
  if(allocation_type == kTfLiteArenaRw) {
    uint8_t* start = (uint8_t*) ((uintptr_t)tensorData[i].data + (uintptr_t) tensor_arena);

    tensor->data.data =  start;
  }
  else {
    tensor->data.data = tensorData[i].data;
  }
#else
  tensor->data.data = tensorData[i].data;
#endif // EI_CLASSIFIER_ALLOCATION_HEAP
}

static void* overflow_buffers[EI_MAX_OVERFLOW_BUFFER_COUNT];
static size_t overflow_buffers_ix = 0;
static void * AllocatePersistentBufferImpl(struct TfLiteContext* ctx,
                                       size_t bytes) {
  void *ptr;
  uint32_t align_bytes = (bytes % 16) ? 16 - (bytes % 16) : 0;

  if (current_location - (bytes + align_bytes) < tensor_boundary) {
    if (overflow_buffers_ix > EI_MAX_OVERFLOW_BUFFER_COUNT - 1) {
      ei_printf("ERR: Failed to allocate persistent buffer of size %d, does not fit in tensor arena and reached EI_MAX_OVERFLOW_BUFFER_COUNT\n",
        (int)bytes);
      return NULL;
    }

    // OK, this will look super weird, but.... we have CMSIS-NN buffers which
    // we cannot calculate beforehand easily.
    ptr = ei_calloc(bytes, 1);
    if (ptr == NULL) {
      ei_printf("ERR: Failed to allocate persistent buffer of size %d\n", (int)bytes);
      return NULL;
    }
    overflow_buffers[overflow_buffers_ix++] = ptr;
    return ptr;
  }

  current_location -= bytes;

  // align to the left aligned boundary of 16 bytes
  current_location -= 15; // for alignment
  current_location += 16 - ((uintptr_t)(current_location) & 15);

  ptr = current_location;
  memset(ptr, 0, bytes);

  return ptr;
}

typedef struct {
  size_t bytes;
  void *ptr;
} scratch_buffer_t;

static scratch_buffer_t scratch_buffers[EI_MAX_SCRATCH_BUFFER_COUNT];
static size_t scratch_buffers_ix = 0;

static TfLiteStatus RequestScratchBufferInArenaImpl(struct TfLiteContext* ctx, size_t bytes,
                                                int* buffer_idx) {
  if (scratch_buffers_ix > EI_MAX_SCRATCH_BUFFER_COUNT - 1) {
    ei_printf("ERR: Failed to allocate scratch buffer of size %d, reached EI_MAX_SCRATCH_BUFFER_COUNT\n",
      (int)bytes);
    return kTfLiteError;
  }

  scratch_buffer_t b;
  b.bytes = bytes;

  b.ptr = AllocatePersistentBufferImpl(ctx, b.bytes);
  if (!b.ptr) {
    ei_printf("ERR: Failed to allocate scratch buffer of size %d\n",
      (int)bytes);
    return kTfLiteError;
  }

  scratch_buffers[scratch_buffers_ix] = b;
  *buffer_idx = scratch_buffers_ix;

  scratch_buffers_ix++;

  return kTfLiteOk;
}

static void* GetScratchBufferImpl(struct TfLiteContext* ctx, int buffer_idx) {
  if (buffer_idx > (int)scratch_buffers_ix) {
    return NULL;
  }
  return scratch_buffers[buffer_idx].ptr;
}

static const uint16_t TENSOR_IX_UNUSED = 0x7FFF;

static void ResetTensors() {
  for (size_t ix = 0; ix < MAX_TFL_TENSOR_COUNT; ix++) {
    tflTensors[ix].index = TENSOR_IX_UNUSED;
  }
  for (size_t ix = 0; ix < MAX_TFL_EVAL_COUNT; ix++) {
    tflEvalTensors[ix].index = TENSOR_IX_UNUSED;
  }
}

static TfLiteTensor* GetTensorImpl(const struct TfLiteContext* context,
                               int tensor_idx) {

  tensor_idx = tflTensors_subgraph_index[current_subgraph_index] + tensor_idx;

  for (size_t ix = 0; ix < MAX_TFL_TENSOR_COUNT; ix++) {
    // already used? OK!
    if (tflTensors[ix].index == tensor_idx) {
      return &tflTensors[ix].tensor;
    }
    // passed all the ones we've used, so end of the list?
    if (tflTensors[ix].index == TENSOR_IX_UNUSED) {
      // init the tensor
      init_tflite_tensor(tensor_idx, &tflTensors[ix].tensor);
      tflTensors[ix].index = tensor_idx;
      return &tflTensors[ix].tensor;
    }
  }

  ei_printf("ERR: GetTensor called beyond MAX_TFL_TENSOR_COUNT (%d)\n", MAX_TFL_TENSOR_COUNT);
  return nullptr;
}

static TfLiteEvalTensor* GetEvalTensorImpl(const struct TfLiteContext* context,
                                       int tensor_idx) {

  tensor_idx = tflTensors_subgraph_index[current_subgraph_index] + tensor_idx;

  for (size_t ix = 0; ix < MAX_TFL_EVAL_COUNT; ix++) {
    // already used? OK!
    if (tflEvalTensors[ix].index == tensor_idx) {
      return &tflEvalTensors[ix].tensor;
    }
    // passed all the ones we've used, so end of the list?
    if (tflEvalTensors[ix].index == TENSOR_IX_UNUSED) {
      // init the tensor
      init_tflite_eval_tensor(tensor_idx, &tflEvalTensors[ix].tensor);
      tflEvalTensors[ix].index = tensor_idx;
      return &tflEvalTensors[ix].tensor;
    }
  }

  ei_printf("ERR: GetTensor called beyond MAX_TFL_EVAL_COUNT (%d)\n", (int)MAX_TFL_EVAL_COUNT);
  return nullptr;
}

class EonMicroContext : public MicroContext {
 public:
 
  EonMicroContext(): MicroContext(nullptr, nullptr, nullptr) { }

  void* AllocatePersistentBuffer(size_t bytes) {
    return AllocatePersistentBufferImpl(nullptr, bytes);
  }

  TfLiteStatus RequestScratchBufferInArena(size_t bytes,
                                           int* buffer_index) {
  return RequestScratchBufferInArenaImpl(nullptr, bytes, buffer_index);
  }

  void* GetScratchBuffer(int buffer_index) {
    return GetScratchBufferImpl(nullptr, buffer_index);
  }
 
  TfLiteTensor* AllocateTempTfLiteTensor(int tensor_index) {
    return GetTensorImpl(nullptr, tensor_index);
  }

  void DeallocateTempTfLiteTensor(TfLiteTensor* tensor) {
    return;
  }

  bool IsAllTempTfLiteTensorDeallocated() {
    return true;
  }

  TfLiteEvalTensor* GetEvalTensor(int tensor_index) {
    return GetEvalTensorImpl(nullptr, tensor_index);
  }

};


} // namespace

TfLiteStatus tflite_learn_1027041_7_init( void*(*alloc_fnc)(size_t,size_t) ) {
#ifdef EI_CLASSIFIER_ALLOCATION_HEAP
  tensor_arena = (uint8_t*) alloc_fnc(16, kTensorArenaSize);
  if (!tensor_arena) {
    ei_printf("ERR: failed to allocate tensor arena\n");
    return kTfLiteError;
  }
#else
  memset(tensor_arena, 0, kTensorArenaSize);
#endif
  tensor_boundary = tensor_arena;
  current_location = tensor_arena + kTensorArenaSize;

  EonMicroContext micro_context_;
  
  // Set microcontext as the context ptr
  ctx.impl_ = static_cast<void*>(&micro_context_);
  // Setup tflitecontext functions
  ctx.AllocatePersistentBuffer = &AllocatePersistentBufferImpl;
  ctx.RequestScratchBufferInArena = &RequestScratchBufferInArenaImpl;
  ctx.GetScratchBuffer = &GetScratchBufferImpl;
  ctx.GetTensor = &GetTensorImpl;
  ctx.GetEvalTensor = &GetEvalTensorImpl;
  ctx.ReportError = &MicroContextReportOpError;

  ctx.tensors_size = 11;
  for (size_t i = 0; i < 11; ++i) {
    TfLiteTensor tensor;
    init_tflite_tensor(i, &tensor);
    if (tensor.allocation_type == kTfLiteArenaRw) {
      auto data_end_ptr = (uint8_t*)tensor.data.data + tensorData[i].bytes;
      if (data_end_ptr > tensor_boundary) {
        tensor_boundary = data_end_ptr;
      }
    }
  }

  if (tensor_boundary > current_location /* end of arena size */) {
    ei_printf("ERR: tensor arena is too small, does not fit model - even without scratch buffers\n");
    return kTfLiteError;
  }

  registrations[OP_FULLY_CONNECTED] = Register_FULLY_CONNECTED();
  registrations[OP_SOFTMAX] = Register_SOFTMAX();

  for (size_t g = 0; g < 1; ++g) {
    current_subgraph_index = g;
    for(size_t i = tflNodes_subgraph_index[g]; i < tflNodes_subgraph_index[g+1]; ++i) {
      if (registrations[used_ops[i]].init) {
        tflNodes[i].user_data = registrations[used_ops[i]].init(&ctx, (const char*)tflNodes[i].builtin_data, 0);
      }
    }
  }
  current_subgraph_index = 0;

  for(size_t g = 0; g < 1; ++g) {
    current_subgraph_index = g;
    for(size_t i = tflNodes_subgraph_index[g]; i < tflNodes_subgraph_index[g+1]; ++i) {
      if (registrations[used_ops[i]].prepare) {
        ResetTensors();
        TfLiteStatus status = registrations[used_ops[i]].prepare(&ctx, &tflNodes[i]);
        if (status != kTfLiteOk) {
          return status;
        }
      }
    }
  }
  current_subgraph_index = 0;

  return kTfLiteOk;
}

TfLiteStatus tflite_learn_1027041_7_input(int index, TfLiteTensor *tensor) {
  init_tflite_tensor(in_tensor_indices[index], tensor);
  return kTfLiteOk;
}

TfLiteStatus tflite_learn_1027041_7_output(int index, TfLiteTensor *tensor) {
  init_tflite_tensor(out_tensor_indices[index], tensor);
  return kTfLiteOk;
}

TfLiteStatus tflite_learn_1027041_7_invoke() {
  for (size_t i = 0; i < 4; ++i) {
    ResetTensors();

    TfLiteStatus status = registrations[used_ops[i]].invoke(&ctx, &tflNodes[i]);

#if EI_CLASSIFIER_PRINT_STATE
    ei_printf("layer %lu\n", i);
    ei_printf("    inputs:\n");
    for (size_t ix = 0; ix < tflNodes[i].inputs->size; ix++) {
      auto d = tensorData[tflNodes[i].inputs->data[ix]];

      size_t data_ptr = (size_t)d.data;

      if (d.allocation_type == kTfLiteArenaRw) {
        data_ptr = (size_t)tensor_arena + data_ptr;
      }

      if (d.type == TfLiteType::kTfLiteInt8) {
        int8_t* data = (int8_t*)data_ptr;
        ei_printf("        %lu (%zu bytes, ptr=%p, alloc_type=%d, type=%d): ", ix, d.bytes, data, (int)d.allocation_type, (int)d.type);
        for (size_t jx = 0; jx < d.bytes; jx++) {
          ei_printf("%d ", data[jx]);
        }
      }
      else {
        float* data = (float*)data_ptr;
        ei_printf("        %lu (%zu bytes, ptr=%p, alloc_type=%d, type=%d): ", ix, d.bytes, data, (int)d.allocation_type, (int)d.type);
        for (size_t jx = 0; jx < d.bytes / 4; jx++) {
          ei_printf("%f ", data[jx]);
        }
      }
      ei_printf("\n");
    }
    ei_printf("\n");

    ei_printf("    outputs:\n");
    for (size_t ix = 0; ix < tflNodes[i].outputs->size; ix++) {
      auto d = tensorData[tflNodes[i].outputs->data[ix]];

      size_t data_ptr = (size_t)d.data;

      if (d.allocation_type == kTfLiteArenaRw) {
        data_ptr = (size_t)tensor_arena + data_ptr;
      }

      if (d.type == TfLiteType::kTfLiteInt8) {
        int8_t* data = (int8_t*)data_ptr;
        ei_printf("        %lu (%zu bytes, ptr=%p, alloc_type=%d, type=%d): ", ix, d.bytes, data, (int)d.allocation_type, (int)d.type);
        for (size_t jx = 0; jx < d.bytes; jx++) {
          ei_printf("%d ", data[jx]);
        }
      }
      else {
        float* data = (float*)data_ptr;
        ei_printf("        %lu (%zu bytes, ptr=%p, alloc_type=%d, type=%d): ", ix, d.bytes, data, (int)d.allocation_type, (int)d.type);
        for (size_t jx = 0; jx < d.bytes / 4; jx++) {
          ei_printf("%f ", data[jx]);
        }
      }
      ei_printf("\n");
    }
    ei_printf("\n");
#endif // EI_CLASSIFIER_PRINT_STATE

    if (status != kTfLiteOk) {
      return status;
    }
  }
  return kTfLiteOk;
}

TfLiteStatus tflite_learn_1027041_7_reset( void (*free_fnc)(void* ptr) ) {
#ifdef EI_CLASSIFIER_ALLOCATION_HEAP
  free_fnc(tensor_arena);
#endif

  // scratch buffers are allocated within the arena, so just reset the counter so memory can be reused
  scratch_buffers_ix = 0;

  // overflow buffers are on the heap, so free them first
  for (size_t ix = 0; ix < overflow_buffers_ix; ix++) {
    ei_free(overflow_buffers[ix]);
  }
  overflow_buffers_ix = 0;
  return kTfLiteOk;
}
